digraph Tree {
node [shape=box, style="filled, rounded", color="black", fontname=helvetica] ;
edge [fontname=helvetica] ;
0 [label="Approve_good <= 0.5\nentropy = 0.888\nsamples = 900\nvalue = [[625, 275]\n[275, 625]]", fillcolor="#e5813900"] ;
1 [label="entropy = 0.0\nsamples = 275\nvalue = [[0, 275]\n[275, 0]]", fillcolor="#e58139ff"] ;
0 -> 1 [labeldistance=2.5, labelangle=45, headlabel="True"] ;
2 [label="entropy = 0.0\nsamples = 625\nvalue = [[625, 0]\n[0, 625]]", fillcolor="#e58139ff"] ;
0 -> 2 [labeldistance=2.5, labelangle=-45, headlabel="False"] ;
}